#include <iostream>
#include <vector>
#include <map>
#include <cassert>
#include <cmath>
#include <fstream>
#include <string>
#include <cstring>

using namespace std;

double weights[] = {-0.02785,0.10173,0.38021,0.62906,0.26244,0.16604,0.77624,-0.45594,-0.36727,0.71696,0.12555,-0.15244,-0.26377,-1.03021,-0.97047,-1.03330,-0.55636,-0.75774,-0.20305,-0.59267,-0.23387,-0.13467,0.23695,0.48919,0.25984,0.16598,-0.03852,0.10232,0.25523,0.48237,-0.21038,-0.35935,-0.43102,-0.32538,0.16413,-1.39737,-0.23940,-0.24694,-0.63405,-0.81668,0.18415,-0.60058,0.17775,0.13808,0.43635,-0.65648,-0.85473,-0.44003,-0.89343,0.06792,-0.18501,0.07914,-0.12730,-0.22621,-0.21673,-0.41748,-0.50065,0.08082,-0.23547,-0.02739,0.05028,0.16764,0.11799,0.34561,0.00653,-0.52413,-0.38268,0.08199,0.17123,-0.41801,-0.35034,0.09714,0.29350,-0.35296,0.00271,-0.09404,-0.45848,-0.33544,0.23956,-0.39467,0.34199,0.71520,-0.08286,-0.17553,-0.24355,-0.51626,0.02392,0.11543,0.39676,-0.36726,-0.63175,0.47518,0.37807,0.05215,-0.03943,0.13940,-0.74943,-0.45094,-0.69902,-0.23337,0.77673,-0.63343,-0.06587,0.05598,0.11854,0.08216,0.25968,-0.24211,-0.07726,-0.50160,0.32336,-0.78029,0.91995,-0.02266,0.04887,0.04408,0.49533,-0.42575,-0.00823,0.37091,0.52535,-0.16120,0.03283,-0.53423,-0.12578,0.10867,0.06957,-0.05112,0.38845,0.68766,-0.81511,-0.43689,-0.56265,-0.45231,0.89583,-0.00776,0.39852,-0.19220,0.52384,-0.32180,-0.64724,0.34110,-0.47096,-0.73625,-0.89691,0.16999,0.53268,0.25586,0.83195,-0.35548,-0.07592,-0.31337,0.02136,0.81798,0.17959,0.53468,0.71279,-0.01639,0.62790,0.10206,-1.13447,-0.32172,-0.36772,-0.49933,0.08335,-0.05008,0.67953,0.45738,0.38285,-0.36539,-1.03674,-0.55325,0.10840,-0.32763,-0.47150,0.59499,0.74115,0.70035,0.58459,0.74697,-0.08088,0.60704,-0.26679,0.06444,0.52662,0.24141,-0.18390,0.66213,0.14105,-0.63168,-0.69018,-0.19624,-0.22775,-0.05284,-0.14165,-0.03893,0.51133,0.69126,1.02091,0.44279,-0.12221,0.27511,-0.44642,0.33536,-0.48481,0.01666,-0.02749,0.34246,-0.25743,-0.43957,-0.72751,-0.61916,0.62780,-0.06155,-0.20951,-0.43351,0.93446,0.29722,1.23075,0.85932,0.79598,-0.39005,-0.67079,-0.49232,0.12196,0.32389,0.12829,-0.22637,0.13625,-0.35493,0.16043,-0.81588,-0.20045,-0.34989,-0.64246,-0.50531,0.00420,0.11389,1.22144,0.38412,0.98238,-0.18038,0.07060,0.50004,-0.21505,0.12248,-0.22252,0.28327,-0.48405,-0.00915,-0.05687,-1.09360,-1.21045,-0.84556,-0.63464,-0.04230,0.15730,0.11210,0.76351,0.97798,0.69681,-0.04010,-0.04209,-0.27136,-0.21674,-0.44629,0.05895,-0.49945,-0.03557,-0.96337,-0.61199,-0.34667,0.13328,-0.99441,-0.04101,-0.51303,-0.37803,0.40041,-0.18223,1.01661,0.59291,0.24363,0.31683,-0.58352,0.21957,-0.49772,0.43458,0.15561,0.15815,-0.81416,-0.34595,0.10657,-0.02332,-1.07449,-0.77067,-0.61307,-0.92744,0.08684,0.08488,0.71914,1.00355,0.12863,-0.40769,0.44995,-0.42460,-0.59900,0.41723,0.39524,-0.59226,-0.95165,-0.42676,0.07442,-0.42836,-0.63175,-0.44805,-0.38931,-0.23813,-0.37501,0.22609,0.95301,1.67494,0.82369,-0.08580,-0.01147,-0.40873,0.28346,0.08314,0.57137,0.22916,-0.88961,-0.40729,0.02470,-0.28802,-0.55882,-0.24182,-0.29027,-0.41249,-0.85806,0.05424,-0.10128,0.90073,1.10652,0.41547,-0.04730,-0.26181,-0.23413,0.22710,0.23026,-0.63007,-1.47610,-0.74266,-0.46026,-0.10134,-0.18829,-0.56452,-0.35069,-0.33711,-0.33032,-0.47195,0.22018,1.05786,0.89934,0.23111,0.42639,0.00430,0.10098,-0.05743,-0.03609,-0.52430,-0.67705,-0.20904,-0.55750,0.01624,-0.69242,0.53213,-0.49927,-0.20643,-1.02968,-0.70379,-0.18536,1.29730,0.94006,0.62384,0.65239,0.48740,0.39489,0.09042,0.04873,-0.62099,-0.72024,-0.25668,-0.80257,0.14714,-0.08666,0.37684,0.00165,-0.26266,-0.65587,-0.03372,0.12267,0.06719,0.94097,0.91812,0.91857,0.47793,0.06554,-0.10661,-0.12370,0.03414,-0.65119,-0.59777,-0.11064,0.04841,0.30428,-0.12155,0.10191,-0.16530,0.13276,0.52088,-0.70358,0.86646,0.44062,0.14083,0.26525,0.13868,-0.08377,0.13879,-0.18666,-0.03273,-0.74494,-0.73151,-0.06875,0.59669,0.18036,0.39438,0.32315,-0.48935,-0.24899,-0.11929,-0.22682,0.47587,-0.08479,0.33637,0.84331,0.62679,0.10829,0.25713,0.43868,0.44477,0.42339,0.28267,0.08137,-0.12036,-0.30415,0.41264,-0.47330,0.16853,-0.23624,0.64583,-0.49975,0.42336,0.06434,0.74467,0.06966,0.61511,0.36590,-0.02139,0.88242,0.72993,0.05161,0.37038,0.38075,0.49701,0.28717,0.23367,-0.85826,-0.05433,0.48412,-0.29413,-0.65014,0.12968,0.53795,0.06429,0.49576,0.24285,-0.06822,0.37697,-0.04003,0.41666,-0.47548,-0.23286,0.92279,-0.43990,0.19963,0.07742,-0.40781,0.71879,0.54720,-0.05278,-0.37757,0.27672,0.06466,-0.17426,0.36651,0.11009,0.19737,0.00597,-0.28361,0.06236,-0.08308,0.13280,-0.25702,-0.00965,0.16901,0.17973,-0.15010,-0.09544,-0.14380,-0.47845,0.56743,0.27578,-0.24476,-0.28158,-0.02280,-0.47713,-0.15090,0.42406,0.66788,0.55949,-0.33273,-0.16987,-0.53473,-0.40110,0.26709,-0.04137,-0.42107,-0.36536,-1.11623,-0.24684,-0.06902,0.49606,-0.46075,-0.61610,-0.35263,0.51539,-0.05466,-0.83938,0.04566,-0.20433,-0.62575,-0.07882,0.28215,-0.29009,-0.51115,-0.37772,-0.11976,-0.64775,-0.52693,-0.28184,0.39828,0.05265,0.00562,-0.14009,0.21965,-0.20136,0.06832,-0.09300,-0.04342,-0.12094,-0.00193,0.34816,0.10289,-0.08941,-0.72297,-0.45447,-0.80502,-0.14947,-0.05468,0.22333,-0.31648,-0.90841,-0.30331,-0.02873,-0.25088,-0.38397,-0.33768,-1.02955,0.38226,-0.66615,-0.48532,0.41890,0.22633,-0.35256,-0.41696,0.22909,-0.70092,-0.73386,0.04151,-0.65848,-0.05466,1.66308,-0.04268,0.28904,0.13131,0.31479,-0.04996,-0.54245,-0.65585,-0.94969,-1.45998,-0.62130,-1.13713,-0.08948,0.42920,-0.21058,-0.42813,-0.48906,0.85391,0.19889,1.31821,-0.29044,-1.12537,-0.72957,-0.63925,-1.49022,-0.68213,-2.39737,-1.60602,-1.45893,-0.78437,0.52902,0.23328,-1.18142,-1.38270,-0.61131,-0.15511,0.54627,2.33186,0.58018,0.92082,0.69633,-0.41222,-1.19300,-0.34556,-0.39638,1.16053,0.80297,1.17125,-1.45940,-1.12888,1.76338,0.14613,-0.90274,-1.46943,-1.11643,-1.22825,-1.01340,0.72280,0.64849,1.46051,1.44648,1.60618,0.79661,0.15883,-0.11320,-0.36725,0.51534,-0.03891,-0.22209,0.73194,-0.54375,-0.85767,-0.66994,-1.03883,-0.96528,-0.57242,-1.24552,-0.13292,-0.30055,1.13746,-0.52778,1.61744,-0.13016,0.14334,1.26676,-0.33292,-0.35664,-0.25648,-0.26050,-0.44863,-0.70470,-0.67895,0.04380,0.18523,-0.61941,-0.19059,-0.89801,-0.11735,-0.81180,1.36686,0.13997,-0.98788,-1.25945,-0.85814,0.71918,0.60740,0.60235,1.36560,1.07669,0.23890,0.75861,0.24884,0.08723,-0.02478,-0.30635,0.72466,-1.11447,0.28081,1.23886,0.61053,0.28651,-1.45733,0.70597,-0.16951,1.21102,0.46576,-0.58525,-0.22205,-0.09511,0.69193,0.66926,0.42483,0.90582,0.32553,0.64336,0.19652,0.65303,-0.03696,0.30426,0.27284,0.57037,0.17504,0.27313,-0.45500,-0.39118,0.28442,-0.14313,-0.17208,1.46232,0.36191,-0.27756,0.57554,0.39370,1.71232,0.08251,-0.09792,0.20017,0.27918,-0.69568,0.25712,0.62347,0.24802,0.11852,-0.44782,0.53516,0.30757,0.21824,-0.33646,-0.33467,-0.27426,0.72036,0.85839,0.50662,0.12804,-0.51150,0.29290,0.01783,0.86490,-1.00668,-0.22320,-0.12505,0.03691,-0.40640,-0.42812,0.22307,0.26515,-0.40936,-0.00230,0.95587,1.97754,1.48166,-0.13037,1.09489,-0.44565,0.47972,0.20535,-0.77460,0.28314,0.00299,0.25835,0.75892,0.81971,-0.69915,-0.02353,1.02103,-0.68752,-0.06650,-0.38007,-0.70576,1.27754,-0.60378,0.30706,1.13127,-1.31491,0.19569,0.01107,-0.86512,-0.12752,-0.02571,0.95259,1.18752,-0.13111,0.10699,0.37168,-0.16098,-0.13091,0.38021,-0.16699,-0.81199,1.73822,-0.76414,-0.07340,0.17846,1.03780,-0.30230,0.24406,-1.10986,0.47261,-1.11606,0.74096,0.98145,0.18265,-0.16373,0.93857,-0.12958,-0.25992,-0.86215,0.12710,0.69563,0.36496,-0.11039,0.51916,-0.19479,-0.23923,0.14713,-0.44980,0.20654,0.09831,0.05990,0.76934,1.40077,0.20254,-0.22293,-0.43825,-0.77330,-0.09589,0.13527,-0.38016,0.48106,0.61736,0.12083,0.18638,-0.11246,-0.04272,0.44872,-1.09459,-1.20825,0.65250,-0.00614,0.86825,1.44775,1.12820,-0.70257,-1.67691,-0.26319,-0.57775,0.32765,0.45932,-0.01958,0.58063,0.31903,0.19422,-0.61217,0.42716,0.10195,-1.31066,-1.23604,0.16616,-0.75744,0.43434,2.15643,0.41287,-0.68868,-0.89927,-0.89687,-0.43117,0.18640,0.36260,-0.35951,-0.11790,-0.15331,-1.05001,0.02389,-0.12667,-0.97641,-1.42777,-0.19393,0.40952,-0.06058,0.10650,0.79667,-0.22210,-1.87707,-0.78145,-1.00426,-0.26921,0.30111,0.38967,-0.18917,0.15459,0.57505,-0.43991,0.41055,-0.35695,0.10847,-0.19582,0.00607,-0.37591,0.63065,0.44621,0.40349,-0.69773,-1.27661,-0.80379,-0.95550,0.47326,0.67487,-0.50622,-0.14993,0.21917,-0.18144,-0.40336,0.50994,-0.75663,-0.32641,0.35118,0.20570,-0.61834,-0.13942,-0.26776,1.42740,-0.03665,-2.43443,-0.84269,0.37383,0.33919,-0.73823,-0.41172,-0.98848,-0.22456,-0.89683,0.20604,-0.13148,0.28478,-0.31158,-0.53492,-0.48471,-1.26313,0.25980,0.80648,1.86162,-0.43186,-1.09630,-0.58882,1.24887,0.03464,0.09173,-0.33295,-0.40338,1.03057,-0.54696,1.17777,0.45693,0.05542,0.29710,0.19958,-0.05450,-0.35844,0.32767,0.43984,0.05656,-1.12628,-1.74537,-1.12246,-0.67460,0.04887,0.35650,0.40610,-0.24622,-0.84391,0.36294,-0.29653,0.60469,0.22625,1.06099,0.29261,0.22408,-0.66716,0.53147,-0.05282,0.45018,-1.25873,-1.27978,-0.61713,0.04474,-0.17252,-1.28593,-0.40835,0.30208,1.04054,-0.81084,-1.35081,0.76698,0.53062,0.30454,0.82980,-0.71840,-0.22008,-0.33746,-1.04349,1.09270,-0.26594,-0.39315,-0.41468,-0.72149,0.90882,-0.57928,-0.53128,-0.17335,0.31638,1.10478,-0.63467,0.17719,-0.37745,0.13184,0.13512,0.11491,-1.22033,-0.63787,-0.49014,0.11543,-0.64479,-0.08746,-0.45113,-0.37650,0.21535,-0.37516,-0.14012,0.54605,0.55066,0.14529,0.08244,0.20826,0.80910,-0.03914,0.28985,-0.25295,-0.36596,-1.13017,-0.70998,1.27331,0.48033,-1.16161,-0.70008,-0.30661,-0.13864,0.62804,0.69151,0.22872,-0.02221,-0.51832,-0.16662,-0.35359,-0.31659,0.46401,0.61131,0.08818,-1.13269,-0.68250,0.24077,-0.27728,-0.43271,-1.10303,0.29579,-0.15785,0.63828,0.14890,0.53854,0.33021,-0.23289,0.30834,-0.19344,0.35850,-0.23815,0.29313,1.19333,0.62844,-0.73005,0.67868,1.01763,-0.21059,-0.46206,-0.44862,0.35233,-0.17860,-0.58999,0.91124,-0.41399,-0.71006,-0.52846,0.60694,0.60234,-0.40513,-0.34207,-0.00607,0.37261,-0.22239,0.00356,0.38179,1.36984,0.22051,-0.84861,0.61848,0.56688,0.52580,-0.97385,0.47234,-0.16040,-1.25823,0.36704,0.46632,-0.05602,0.61379,-0.92327,0.29441,0.55785,0.67712,0.46804,0.85374,1.92569,0.03715,0.30236,0.57671,-0.29731,-2.35833,-1.52484,-0.66082,-0.66969,-0.83903,0.05692,0.32587,-0.56775,0.32323,-0.21739,0.49983,0.65313,0.64648,0.87031,1.24976,1.29014,1.43260,2.32336,0.02909,0.11671,-0.11819,0.61046,0.99508,0.37350,-0.45014,-0.74635,-0.27709,0.40465,1.53629,1.74061,0.27330,0.30732,0.04241,1.49238,1.40220,1.54663,0.39167,-0.24745,-0.42069,0.19569,-0.43449,-0.28086,0.11820,-0.43871,0.28048,0.06367,0.29784,0.07827,-0.11052,0.01655,-0.21469,0.26709,-0.35615,0.22037,-0.89025,-0.81770,0.03418,0.16973,-0.22878,-0.28444,-0.05102,0.19267,0.24485,-0.05248,0.65196,-0.91707,-0.09391,0.18885,0.29188,-0.33487,0.77089,0.32068,-0.57507,-0.87449,-0.06820,-0.81963,-0.54237,-0.33842,-0.43228,0.30421,0.49215,0.49015,0.76171,-0.66441,-0.30581,-0.75644,-0.46299,-0.27345,-0.62131,-0.23059,-0.16634,0.01029,-0.92067,-0.52967,-0.94567,-0.08505,-0.73187,-0.47240,-0.55496,1.02011,0.18688,-0.24122,-0.31295,0.11308,-0.48137,-0.39766,0.12756,-0.06502,-0.42249,0.19672,0.27194,0.29306,-0.62807,-1.00329,-0.76324,-0.73801,-0.14149,-0.41956,-0.65358,-0.66443,0.73534,-0.15993,0.38944,-0.32872,-0.64139,-0.40536,-0.48257,-0.07599,-0.57100,-0.02344,-0.87568,-0.51442,0.04301,0.01357,-0.15998,-0.24718,-0.62023,0.62910,-0.34610,-0.45238,-0.09772,-0.20340,0.15459,0.18479,-0.11127,0.42994,-0.39312,-0.28730,0.07531,-0.07157,-0.08590,0.08089,-0.23821,-0.21149,-0.04083,0.24812,-0.05561,0.23843,0.25499,-0.26750,0.25123,-0.48040,0.21808,0.43578,-0.18727,0.29927,0.10335,-0.35335,-0.36990,0.07838,0.04409,0.21042,0.37477,0.47350,-0.23975,-0.01954,-0.65556,-0.04373,0.25210,-0.40493,-0.08558,-0.37452,-0.17368,-0.09597,0.17690,0.07478,-0.51332,0.07845,-0.07539,-0.07045,0.78132,-0.12909,0.24260,0.64878,0.30321,0.42924,-0.37594,0.08740,0.17687,-0.00697,0.15687,-0.46436,-0.04918,0.45522,-0.35219,-0.26354,-0.17699,-0.41535,-0.10797,0.54483,-0.20820,0.16761,0.13743,0.45239,0.83792,0.41273,0.91191,1.02708,0.26961,0.14306,0.77839,0.40550,-0.21294,-0.53647,-0.58994,0.18694,-0.25253,-0.70907,0.71743,-0.79846,-0.52726,0.10769,0.92472,0.90909,0.03594,0.23026,-0.21465,0.30502,0.26455,-0.40055,0.30018,0.31821,0.32266,-0.58082,0.24350,-0.03091,-0.66823,0.44115,-0.19004,-0.08774,0.01444,0.47235,0.06683,0.84486,0.20788,-0.28998,0.27260,-0.01052,-0.02815,-0.51914,0.70003,0.15001,-0.12648,0.31937,-0.48118,-0.23448,-0.44315,-0.07481,-0.21777,-0.86804,0.01173,0.54264,0.20312,1.11992,0.34247,-0.50617,0.21438,-0.26920,-0.43117,-0.92540,0.14239,0.22479,-0.29208,-0.95734,-0.76084,-0.34606,-0.09024,0.09372,-0.23945,-0.06676,0.28217,-0.09527,0.75071,0.45947,0.76744,-0.35560,-0.32586,-0.63370,0.70609,-0.25221,-0.14360,-0.03120,-0.08103,-0.24068,0.21471,-0.30268,0.03610,-0.53189,-0.37249,0.27833,0.25269,1.14012,0.76621,0.22896,0.87218,-0.33629,-0.92693,0.07086,-0.15037,-0.16827,-0.55391,0.15865,-0.11620,-0.44662,-0.16704,-0.18128,-0.29989,-0.56095,-0.34789,0.20134,1.09013,-0.11423,-0.46507,0.48246,0.56723,-0.05483,0.03633,-0.74344,-0.69853,-0.90460,-0.09161,0.07535,-0.31326,-0.16336,-0.83222,0.29957,-0.68386,-0.05329,-0.29879,0.11612,-0.16873,0.61858,0.12885,0.42873,0.12612,-1.02004,-0.33480,-0.21362,-0.43536,-0.51424,0.35102,0.05109,0.06320,0.11771,0.52535,-0.55907,0.46187,-0.08462,0.39524,0.07685,-0.26749,-0.41535,-0.59542,-0.39629,-1.21978,-0.44206,0.30349,-0.72004,-0.63845,0.36454,-0.04549,-0.54751,-0.25713,0.06325,-0.75689,-0.12598,0.18209,0.23803,-0.64045,-0.49737,-0.47948,-0.74200,-0.75299,-1.62937,-1.53454,-0.45892,-0.13697,-0.19301,-0.59775,-0.52940,0.40312,-0.35746,-0.11771,-0.49046,0.09322,-0.09873,0.46806,-0.12228,0.43460,0.29541,-0.64232,-0.25784,-1.27403,-1.41462,-0.94555,-0.86320,-0.05885,-0.43188,-0.46622,0.19407,0.57082,-0.21483,0.41708,0.21093,-0.21236,0.16606,0.28121,-0.00273,-0.98987,-0.40012,-0.37203,-0.44666,-1.27798,-1.38440,-0.75853,-0.53468,0.54474,0.04049,-0.10937,-0.50397,0.25011,0.74721,-0.26335,1.07430,-0.41352,-0.28349,-0.43058,-0.78607,-0.56111,-1.27910,-0.69442,-0.19015,-1.02597,-1.12234,-0.98666,-0.60312,-0.19339,0.13758,-0.19942,0.01042,-0.24017,0.32796,0.46577,-0.05676,-0.30356,-0.29679,-0.59556,-0.30445,-0.56347,-0.56457,-0.29098,0.13723,-0.59920,-0.31097,-1.21219,-0.13253,-0.05118,-0.45506,-0.34956,0.24322,-0.15811,0.07828,0.74271,0.94701,0.30777,-0.43324,0.18053,-0.84635,-0.19920,-0.40427,-0.02690,-0.10856,-0.32519,-0.08004,0.04779,0.34847,-0.09327,-0.83074,0.35719,-0.02696,0.48947,0.46492,0.80233,0.55807,-0.19188,-0.04997,-0.21688,-0.49216,-0.42266,-0.42494,0.66847,0.50764,-0.05031,0.65774,-0.37213,-0.01956,0.56588,0.13065,-0.14863,-0.36454,0.12172,0.08943,0.92206,0.67043,-0.31992,0.23516,-0.14187,0.33786,-0.05669,0.43499,-0.33576,-0.38908,0.43326,0.24038,-0.17227,0.50400,-0.17825,0.57937,0.05217,-0.11232,0.71141,-0.13228,0.51694,0.48149,0.00143,0.00217,0.03567,0.16037,-0.04522,0.53488,-0.35674,-0.09102,-0.06612,-0.16362,-0.35023,0.47764,0.32128,0.14990,0.42755,-0.30960,0.79511,0.28112,0.25179,-0.28416,0.18523,0.41915,0.38768,0.56350,0.24244,0.47773,0.18987,0.49834,0.13495,0.87659,0.90373,0.17172,-0.10982,0.55449,-0.22465,0.22408,-0.29585,0.09629,-0.50677,0.41211,-0.38085,0.16868,0.31732,0.29437,0.20486,0.30125,0.82075,0.66109,0.74408,1.20056,0.92734,0.20778,0.02148,0.02563,-0.60041,-0.53211,-0.63109,-0.53969,-0.98310,-0.08516,-0.05728,-0.56214,0.04643,0.27870,0.37662,-0.58342,0.04562,0.52156,0.56186,0.88796,0.43049,0.57879,0.47272,-0.32981,-0.27882,-0.02574,-0.13341,0.38172,-0.18853,-0.19155,-0.39595,-0.08510,0.30194,-0.33154,0.01313,-0.26239,0.59381,1.14215,1.41904,0.11490,1.02842,0.48513,-0.76803,0.34880,-0.19762,-0.49609,-0.42185,-0.34803,0.45627,0.37506,0.30361,0.73740,-0.04455,-0.14952,0.25101,0.01203,0.21521,-0.38670,-0.39965,-0.52322,-0.83232,-1.45990,0.47252,0.28275,0.18775,0.15033,0.17884,-0.08941,-0.29220,-0.74480,0.37577,-0.04474,0.40247,0.13465,-0.00182,0.30282,0.54112,-0.87237,0.18364,-0.30883,-0.73947,-0.45453,0.15815,0.20503,0.47876,0.59323,0.82633,-0.24040,-0.20275,-0.18893,0.29483,-0.26532,-0.49549,-0.63086,-0.57274,-0.82289,0.23693,0.00667,-0.35488,-0.84234,-0.59779,-0.96396,0.00542,-0.33103,0.08155,-0.32239,0.47984,-0.39476,-0.32051,0.31155,-0.89755,0.01242,0.39268,-0.67170,0.49601,-0.30877,-1.28402,-0.21764,-0.72893,-0.40714,-0.85863,-0.43344,0.39514,-0.62428,0.40677,0.00699,-0.34584,-0.56353,0.42855,0.75735,-0.04571,0.13481,-0.39748,-0.83086,0.16496,0.46935,0.04352,0.22487,0.51958,-0.81241,-0.41371,0.38955,0.42516,1.07156,0.41292,0.34992,0.53624,-0.06843,-0.17515,0.71532,-0.23698,-0.47181,-1.05400,-0.56669,0.16688,0.82819,1.00438,0.19540,0.30915,-0.70081,0.59890,1.02093,0.55450,0.67633,0.45572,0.23926,-0.05415,0.18588,-0.05040,-0.03323,-0.72116,0.45569,-0.53909,0.19641,1.03121,0.05659,-0.37955,0.68851,-0.17177,0.41175,0.49655,1.52767,0.43274,0.48673,0.37169,-0.01711,-0.31712,-0.00201,0.11634,0.49885,0.04008,0.70593,-0.86116,1.02867,-0.22878,-0.48289,-0.14793,1.20043,-0.40459,-0.07138,0.37308,0.94893,0.53733,1.01543,0.23741,-1.07048,-0.47779,0.13348,0.77735,-0.12230,-0.95476,0.35126,0.17407,0.05099,-0.52485,0.17719,0.44617,-0.61969,0.00582,0.50861,0.27548,-0.47154,-0.32745,-0.19799,-0.97237,-1.77138,-0.00104,-0.87352,0.59539,-0.99421,1.36965,1.07508,-0.02682,-0.15406,0.70468,1.00145,1.06066,0.27888,0.19563,1.00028,0.18573,-0.34988,-0.41848,-0.31485,-1.97133,-0.61236,-0.82987,-0.65613,-0.07344,0.32937,0.52771,0.00193,0.60768,0.51640,0.57018,0.03617,-0.49854,0.51960,-0.23355,0.83069,0.84649,0.13143,-0.33585,-1.60312,-1.88979,-1.28252,-0.38691,-0.39939,-0.09090,-1.11848,-0.61059,0.76090,-0.14732,0.34078,-0.06926,0.68769,-0.04088,-0.36606,0.07657,-0.63061,-0.01774,-0.40608,-0.93585,-1.18976,-0.77551,-1.63099,-1.84481,-1.09597,-0.52773,-1.20733,-0.61628,0.00301,-0.92740,-0.77613,-0.94941,-0.72031,-1.27101,-0.77598,-0.23536,-0.70244,-0.68322,-0.19329,-0.93585,-1.00483,-1.01513,-1.41313,-0.28413,0.15828,-0.28657,0.41707,1.00795,0.96591,0.49407,-0.58883,-0.61153,0.01031,-0.40334,0.16714,-1.64439,-0.93119,-0.77784,-1.36626,-0.44320,-1.00002,-0.04127,-0.99039,0.05295,0.43343,0.86649,1.22604,1.10807,0.42841,0.35301,0.20644,-0.02407,0.57555,0.08871,-0.16392,0.63395,-0.17823,-1.01349,-1.52611,-0.05656,-0.97259,-1.20959,-1.54082,-0.56208,-1.28129,0.05842,-0.36136,0.48135,-0.02686,0.79759,-0.06898,0.48611,-0.55924,-0.02306,0.33321,0.24807,0.31803,0.18240,-0.08406,-1.07449,-0.67254,-1.22919,-0.89634,-1.27615,-0.66486,0.28882,0.04638,0.52326,0.49103,0.22180,0.42071,-0.65979,0.17149,1.07967,1.16692,-0.28985,-0.05291,0.72549,-0.33678,-1.23873,-0.90811,-1.10023,-1.86818,-1.19315,-1.27537,-0.81898,-0.51282,-0.61220,-0.67681,-0.19175,-1.59342,-0.68928,-0.31126,0.75622,-0.72969,0.52888,0.96523,0.57353,0.08891,0.42060,0.03863,-0.67264,-1.48952,-0.41533,0.32462,0.38623,-0.12138,-1.68156,-0.81969,-0.89150,0.04214,-0.33953,-0.23502,-0.24169,0.22416,0.65545,0.49076,0.88204,1.05591,-0.10092,-0.86665,-1.13023,-0.54432,-0.12759,0.64665,-0.49832,-0.72285,-0.82597,-0.86592,-0.49903,-0.19682,-0.02534,0.77003,-0.35336,-0.27484,-0.66109,0.73252,1.30634,1.03404,0.10587,-0.70043,-0.48761,-0.31590,-0.59206,-0.11682,-0.67691,-0.78481,-1.09563,0.07501,0.14014,0.49600,-0.71241,-0.16915,0.01071,-0.25406,0.29847,0.36012,0.56749,0.17809,0.06315,-0.74742,-0.07897,-0.54609,-0.41662,-1.33361,-1.86308,0.64563,0.25100,-0.55347,-0.77739,-1.09551,-0.30396,-0.49905,0.63833,0.00265,-0.17572,0.36794,0.26517,0.58655,0.91438,-0.02095,0.31139,0.52393,0.23909,-0.29108,0.11822,0.01126,0.09632,-1.09102,-0.25942,-0.27322,0.10720,0.21371,0.93396,-1.25315,0.43387,0.78903,0.30192,-0.08723,0.64644,0.39471,-0.29405,-0.19725,0.72658,0.47928,-0.33443,-0.29509,-0.50276,-1.06780,-0.17799,0.09989,-0.16192,-0.26364,0.70102,-0.11901,0.40663,0.05848,-0.67473,-0.51263,0.94489,-0.23982,0.32134,0.70341,0.88821,-0.79851,-0.62350,0.76776,-1.03794,-0.15202,-0.20581,0.71648,-0.43300,0.61914,0.07419,-0.43028,0.18504,1.20178,-0.13539,0.30192,0.34365,0.17931,-0.10745,0.22648,1.04691,0.56926,0.47401,0.53602,0.05648,0.14724,0.50556,0.29453,-0.05844,0.45648,-0.56814,0.36081,0.06749,-0.10618,-0.11894,-0.43824,0.04449,0.46857,-0.22569,-0.54317,-0.01730,0.51228,-0.26837,0.42120,0.00303,1.17539,0.11723,0.07872,0.59900,0.59898,0.07503,0.07702,-0.46979,-1.41247,0.50609,-0.32293,0.99200,-0.57457,-0.32598,-0.28041,0.83240,-0.75732,0.08589,0.69668,-0.06314,0.09564,-0.18783,-0.26157,0.32142,-0.45715,-0.48188,-0.02797,-1.47643,0.20082,-1.01923,-0.95678,0.63526,-0.03837,-0.72707,0.50683,-0.30061,0.11526,-0.91595,0.66739,-0.32041,0.11268,0.28641,-0.14539,0.64957,-0.13313,-0.52416,-0.86142,-0.18098,-0.31435,-0.82938,-0.00608,-0.68652,-0.38381,0.56256,1.00350,0.08349,-0.17285,0.18351,0.37386,-0.96523,-0.32262,0.35523,0.51675,-0.02014,0.62463,-0.82899,-0.80821,-0.79067,-0.94943,-1.23152,-0.14204,0.12279,0.22673,-0.33272,-0.42896,0.09287,-0.25054,0.45965,0.11786,0.23199,-0.73217,-0.90906,-0.28689,0.56835,-0.27533,0.77509,-0.49727,0.43649,0.14641,-0.28488,-0.22756,0.66163,0.28951,-0.23897,0.24956,-0.25065,-0.59528,-0.20530,-0.88480,-0.09980,-0.01357,-0.32111,-0.50284,-0.51702,-0.49671,-0.36343,-0.80834,0.06922,-0.05255,-0.27394,0.08623,-0.55746,-0.08648,-0.37379,0.03283,-0.67662,0.11829,-0.08130,0.33862,0.16672,-0.47990,-0.57322,0.18245,-0.14597,-0.76917,-0.94329,-0.35042,-0.72653,-0.31952,-0.92169,-0.28019,-0.07269,-0.53554,-0.33395,-1.13818,-0.23391,-0.91576,-0.06770,0.10286,-0.20264,0.02773,-0.05787,-0.34096,-0.57484,-0.81087,-0.13599,0.24272,-0.02652,-0.22578,-0.12997,0.14706,-0.32999,0.12192,-0.87278,-0.41946,-0.43356,-0.45510,-0.33976,-0.27333,-0.35102,-0.41613,0.14437,-0.32266,-0.35780,-0.58622,-0.01414,0.43779,-0.42828,0.14873,-0.68121,-0.00350,-0.00116,0.30897,-0.40577,-0.48606,0.13369,0.36321,0.26371,0.30529,-0.07202,-0.56689,0.06710,-0.21516,-0.12168,0.09143,0.48906,0.12898,-0.41353,-0.39391,-0.25662,0.25543,-0.28937,-0.21253,-0.14166,-0.75341,-0.47116,-0.45886,-0.11507,-0.53256,0.06476,-0.14569,-0.12130,0.20232,0.10131,0.41324,0.40842,0.41054,-0.34449,0.03726,-0.72648,-0.10351,-0.57266,-0.88731,-0.74650,-1.04700,-0.21954,-0.36862,-0.03035,-0.32382,-0.35476,0.40199,-0.22152,-0.53139,-0.15275,0.20947,0.02067,-0.02868,0.25260,0.03197,-0.62823,-0.03470,-0.05010,-0.99506,-0.64296,-0.73170,0.51151,-0.26554,0.08317,1.07813,-0.45932,-0.02503,0.31912,0.49483,-0.53370,0.14126,0.04726,-0.22933,-0.32434,-0.14308,0.17798,0.22506,0.19917,-0.70822,-0.85177,-0.73236,0.34906,-0.33551,0.78743,0.44472,-0.22666,0.40725,-0.27608,-0.36330,0.10678,0.77124,0.17169,0.54462,0.29091,0.10223,-0.63626,-0.50143,-0.20799,-0.08905,-0.38565,0.02882,0.45167,0.10061,0.01661,-0.04346,0.11869,0.03522,0.04747,-0.14935,-0.00493,0.45172,0.19908,0.50856,0.47867,-0.53737,-0.53286,-0.28593,-0.86759,0.06854,-0.12876,-0.21649,0.24373,0.58027,0.58055,-0.12501,-0.05169,0.01300,-0.45454,-0.07479,0.04899,-0.25040,0.18390,-0.31656,0.12826,-0.57215,-0.51684,-0.55817,0.17160,0.25924,-0.32876,-0.23455,0.52414,-0.11015,-0.21619,0.15359,0.15048,-0.31894,-0.36464,-0.08720,-0.33526,0.65131,-0.16048,-0.27125,0.08257,0.03496,0.00335,-0.60645,-0.33823,0.09283,-0.42262,0.53421,0.47930,0.04932,0.15424,-0.08821,-0.52421,-0.02384,-0.65109,-0.72882,0.07098,-0.06438,0.18135,0.24893,-0.10016,-0.41623,0.01579,-0.44045,0.05149,-0.32654,-0.33753,-0.19618,0.30895,0.17966,0.80371,0.19498,0.02783,-0.44852,-0.08242,0.56412,0.41944,0.56595,-0.04484,0.21778,0.10825,0.27589,-0.10009,-0.39032,-0.47597,0.21199,-0.23692,0.42830,0.79234,0.62210,0.96350,0.67440,-0.24836,-0.08050,0.26058,-0.24252,0.16788,0.46152,-0.19732,0.63795,-0.24640,-0.37611,-0.50810,0.11343,0.38321,0.19246,0.76833,0.24306,0.44186,0.77090,0.46770,0.36137,0.14180,0.16630,0.23859,0.59849,-0.16766,0.37733,0.11273,0.20378,0.37668,-0.25122,0.14769,0.41523,-0.53866,-0.26372,0.64928,0.77583,0.24135,0.54459,0.59844,0.06705,-0.18656,-0.32536,0.66751,-0.16606,-0.10740,0.61431,0.13698,-0.46501,0.57194,-0.34720,0.17469,0.18507,-0.16444,-0.11822,0.41043,0.00208,0.50207,0.85683,0.64828,0.55709,0.04694,0.43326,0.72546,0.34628,0.64609,0.18449,0.56688,-0.10757,0.11260,0.12830,0.08728,0.34451,0.15571,-0.16930,0.26503,-0.05567,0.15470,-0.16821,0.03110,0.27898,-0.13369,0.13950,0.40901,0.10339,0.68588,0.45771,0.61190,-0.41285,0.22321,-0.60705,-0.04750,-0.49933,0.15052,0.35751,0.27190,0.42089,0.08601,0.32889,-0.02292,0.50356,0.62737,0.80676,1.04004,0.84422,0.56619,0.14000,0.21287,-0.28789,0.26651,-0.35732,-0.54038,0.58788,0.19201,-0.45072,-0.51495,-0.31400,0.56581,0.53530,0.35411,-0.22766,-0.20820,0.46185,0.81793,0.85375,-0.00120,0.26882,-0.24337,0.11042,-0.29625,0.20146,-0.02413,0.23103,0.34573,-0.45039,-0.40621,0.09364,0.00484,0.21037,0.11476,0.13983,0.42596,1.07818,0.13055,0.10013,0.36055,0.56013,0.07563,-0.07701,-0.28952,0.42788,0.49163,0.93398,0.16238,-0.25430,-0.59861,-0.71695,-0.30422,0.24443,-0.51170,-0.26024,-0.03959,-0.15451,-0.36921,0.14967,-0.18931,0.23340,0.19816,-0.11599,-0.61406,-0.26580,-0.41260,0.37934,-0.50110,-0.19107,-0.74723,-0.16532,-0.31508,-0.89778,-0.44311,-0.08216,0.17781,-0.28227,0.02405,-0.39069,-0.16378,0.39894,-0.06723,-0.37905,-0.28894,0.06385,-0.38023,-0.17119,-0.03197,-0.26648,-0.61710,-0.85246,-0.39534,-0.47511,-0.67920,-0.00928,-0.36507,-0.76725,-0.38365,-0.29462,0.14241,0.26052,0.11684,0.42117,-0.29428,-0.59930,-0.18125,-0.32146,-0.78663,0.02417,-0.67469,-0.48495,-0.80983,-0.22189,-0.16909,-0.38602,-1.00234,-0.73165,-0.24569,-0.26618,-0.02444,-0.31824,0.18406,0.06045,0.37248,0.20735,0.45979,0.46588,0.13245,-0.46772,-0.66825,-0.25213,-0.48043,-1.44103,-1.10794,-0.43495,-0.46529,-0.28011,-0.04609,0.21341,-0.26988,0.25584,0.43650,-0.15985,-0.22606,0.43847,-0.02737,0.09921,-0.09261,-0.68610,-0.81496,-0.44542,-0.57243,-1.13729,-1.05310,-0.52288,-0.91182,-0.85600,-0.70814,-0.08582,0.19873,-0.36401,-0.68278,0.09286,0.73493,-0.30228,0.50699,-0.04414,-0.37611,-0.87411,-1.00364,-0.52254,-1.35421,-0.62220,-0.49051,-0.77929,-0.22362,-0.73974,0.09956,-0.42846,-0.63650,0.20311,0.20498,0.63343,0.70581,-0.09673,-0.75300,-0.11714,-0.08702,0.75414,-0.38157,-0.55393,0.29404,0.21339,0.84817,-0.64639,0.04160,-0.30646,0.07796,-0.83986,-0.30604,0.08848,-0.21779,-0.19825,0.49861,0.20653,0.31261,0.33869,-0.11184,0.15483,-0.55195,-0.45629,0.35594,0.85969,-0.28161,-0.23897,0.49810,0.18571,-0.14630,-0.06456,-1.16370,-0.34523,-0.60260,-0.72371,0.41699,0.24816,0.90257,0.39517,-0.35496,-0.65232,0.27997,0.19346,0.15804,0.32410,-0.17965,0.10642,0.84842,0.52188,-0.27938,-0.49415,0.48947,-0.38440,-0.30959,0.16296,-0.25059,0.63973,1.32283,-0.60817,-0.58620,0.14947,-0.57460,-0.20815,0.57192,-0.28543,-0.33100,-0.13668,0.38746,-0.16008,-0.48103,-0.58728,-0.43040,0.26459,0.76370,0.68873,0.41415,0.86311,0.14684,-0.87330,-0.34591,0.03217,-0.61422,0.39717,0.12815,-0.00210,0.41793,0.07492,-0.24714,-0.03900,-0.11513,0.23102,-0.58339,0.17774,-0.48423,-0.29483,-0.16339,-0.28714,-0.44136,-0.93519,-0.16543,-0.13526,-1.02614,0.44185,0.51396,-0.02232,0.32288,0.48322,0.47875,-0.05520,0.53819,0.10030,0.14363,-0.79557,-0.02980,0.13637,-1.31040,-0.17904,-0.41931,-1.05940,-0.72588,-0.44268,-0.08282,0.36847,0.29774,-0.00146,-0.52754,0.42875,0.56924,0.74967,0.51919,-0.95912,-0.14990,-0.97544,-0.89939,-0.62937,-0.00582,0.01909,-0.30994,-1.08556,-0.28314,-0.47479,0.07820,0.65713,0.36519,0.67024,0.78804,0.87604,0.04008,0.17027,0.18424,-0.31822,-0.49738,0.00081,-0.07992,-1.01521,-0.66131,-0.14990,-1.22205,-0.71836,-0.57449,-0.94747,-0.17705,-0.04423,0.74833,-0.63312,0.53419,0.42422,-0.52279,-0.01870,-1.17565,-0.44621,0.38056,-0.89263,-0.31072,-0.53649,-0.79370,-1.64595,-1.47245,-1.16062,0.08191,0.23079,0.65826,0.89116,0.65420,0.01977,0.07069,1.12803,-0.69990,-0.85051,-0.02676,0.04254,-0.92787,-0.64125,-1.05439,-0.15704,-0.85530,-0.66342,-0.86390,-1.42679,0.45933,0.64795,1.47766,0.61764,0.43984,-0.42192,0.48728,0.34512,-0.36540,-0.48456,0.46479,0.20051,0.40806,-0.30154,-0.15178,-0.47029,0.14099,-0.54929,-0.01422,-1.20589,-0.06376,-0.02119,1.31496,0.46161,0.22689,-0.00667,0.05204,0.94026,0.21592,0.28216,0.27652,0.17976,-0.48787,-0.63112,-1.26857,-1.29605,-0.00459,0.36877,-0.53596,-0.81635,-0.18265,-0.03160,0.19047,0.80679,1.51983,0.18334,1.14598,1.05379,0.42836,-0.63615,-0.51049,0.22017,-0.87798,0.58969,-0.18354,1.32105,-0.08703,-0.41655,0.21522,-0.87224,0.24530,0.68568,-0.01207,0.44952,0.27895,-0.62176,0.02712,-0.04548,-0.58364,-0.75820,-0.57295,-0.29649,0.52804,0.31634,0.12737,0.37270,-0.11757,0.04476,0.65616,-0.13047,-0.72240,1.06217,0.68209,0.04894,-0.27661,-0.73326,0.09090,-0.22333,0.09546,-0.44903,-0.37308,-0.45824,-0.31944,0.27699,0.06796,-0.21455,0.32610,-0.45426,-0.04672,-0.20253,-0.98979,0.81988,-0.73050,-1.45435,-0.21128,-0.03409,0.28544,-0.37899,-0.20134,-0.68672,-0.66127,-0.13939,0.21385,0.24724,-0.03493,-0.67418,-0.15529,-0.13513,-0.34389,0.41628,-1.30895,-0.87346,-0.67051,-0.06314,-0.75365,-0.07642,0.18638,0.39777,-1.35871,-0.48416,0.07525,0.16644,-0.83775,-0.28789,-0.60751,-0.22556,0.18421,0.20458,0.22160,0.32476,-1.17955,-0.90418,-1.03678,-0.92852,-0.97303,-0.11183,-0.22183,-0.79527,-1.40821,-1.23856,-0.11396,-0.41977,0.12476,0.30275,-0.21678,0.80244,0.71327,0.23865,-0.19320,-0.15925,-1.18539,-1.60479,-1.65592,-1.10591,-0.46950,0.29745,1.03756,-0.24315,0.22431,-0.57992,-0.02195,-0.41034,-0.33299,1.16966,0.18892,-0.36644,1.04630,-0.09176,0.63982,0.47987,-1.38420,-1.50032,-1.44871,-1.17979,0.61748,-0.01228,0.81389,0.03746,0.26357,-0.37535,-0.05725,0.35709,0.76605,0.19974,0.13973,0.38269,0.19022,-0.28890,0.05365,0.05790,-0.49832,-1.56510,-0.69041,-0.18929,-0.01183,0.97471,0.37269,-0.21143,-0.06023,-0.29355,0.52373,0.34023,-0.34303,0.63181,0.17511,0.33426,0.57178,0.24876,0.04622,0.85660,-0.38437,-1.27975,-1.10469,-0.55663,0.30982,0.48481,0.21643,-0.80584,-0.48841,-0.48728,0.32516,0.22535,-0.39085,0.35509,-0.26050,0.04020,0.47471,0.00806,-0.16982,0.30665,0.96180,0.98841,-0.30717,-0.12003,-0.25634,0.16236,0.17079,-0.24953,-0.81952,-0.47461,-0.17927,-0.87699,0.76072,0.78186,0.20035,-0.22506,0.67488,-0.16645,-0.64525,0.21129,0.07964,0.23253,-0.27388,-0.79803,0.32262,0.02386,-0.29563,0.42472,-0.12124,0.19651,-0.23477,0.34260,-0.05423,0.19406,0.01410,0.16456,-0.13700,0.28256,0.37809,0.84475,-0.41565,0.32598,-0.19750,-0.34826,-0.41863,-0.27175,-0.42626,-0.22619,0.07551,-0.56256,0.34938,-0.06702,0.67692,-0.05809,-0.36688,-0.30145,-0.01776,0.00765,0.31543,-0.11059,-0.10944,0.65362,1.09854,0.07860,0.10608,0.31353,0.04791,0.21222,-0.08681,-0.19909,0.72394,-0.12335,0.25405,-0.52261,-0.88013,-0.13489,0.16510,-0.53443,0.13771,0.34889,-0.20011,0.31652,0.72176,0.55131,0.51468,0.14513,-0.24245,-0.40609,-0.07139,0.10484,0.48500,0.10001,0.19360,-0.35941,-0.40005,0.35619,0.52286,0.96961,-0.04170,0.30858,0.11246,0.42872,-0.74601,-0.02821,0.51461,-0.03991,-0.06581,-0.05401,0.10302,-0.08331,1.06977,0.09512,-0.38772,0.55161,0.02698,-0.29993,-0.06310,0.50345,0.96995,-0.43716,-0.11057,-0.67650,-0.10243,-0.13287,0.38049,-0.29587,-0.51771,-0.44781,-0.55827,0.13251,0.33385,0.00198,-0.22546,-0.25770,0.06918,0.39579,0.28764,0.40289,0.40213,-0.56372,-0.59159,-1.06610,-0.41260,0.62108,0.48193,0.31113,0.76857,0.33401,-0.29320,-0.28457,-0.73195,0.13623,-0.67198,-0.93527,-0.30292,-0.22658,-0.07976,-0.68638,-0.39424,0.23073,0.54306,-0.36293,-0.78660,-0.31670,-0.78149,-0.23284,-0.76439,-0.26726,-0.78989,-0.95557,-0.69717,-0.55997,0.19541,0.31691,-0.00016,-0.18898,-0.14695,-1.55494,-0.96002,-1.02109,0.59751,-0.53427,-0.28410,0.01070,-0.25422,-0.50177,-0.83255,-0.40751,-0.47680,-0.83553,0.47284,-0.44047,-0.63066,-0.14518,0.24350,-0.42191,-0.53879,-0.02911,-0.84478,0.18677,-0.19036,-0.53997,-0.22803,-0.33353,-0.45176,-0.28911,-0.09597,0.59532,-0.17739,0.33240,0.34074,-0.45588,-0.50364,0.01809,-0.82102,0.46266,-0.14396,-1.22428,0.02535,-0.16859,0.11977,-0.01893,0.42347,-0.73928,-0.57402,-0.31088,-0.04618,-0.56589,-1.04021,-0.32982,0.25369,-0.59471,-0.67677,-0.21848,0.01056,-0.68598,-0.05094,-0.43589,-0.06053,0.44391,-0.05353,0.49540,-0.17313,-0.24421,-0.69512,0.00228,-0.61171,-0.80081,-0.46225,-0.02754,-0.02309,-0.00320,0.48249,-0.04211,-0.32542,-0.01443,-0.36876,-0.26704,0.14249,0.64781,0.43134,0.18479,-0.56464,-0.76679,-0.39168,-0.60186,-1.18387,0.40290,0.12684,-0.21284,-0.79046,0.34851,0.60923,0.45039,-0.15749,-0.45749,0.40275,-0.70503,0.22445,1.00055,-0.01838,0.31661,-0.23821,-0.49925,-0.30509,-0.88226,-0.33385,0.19370,-0.16642,-0.41695,-0.49187,-0.40735,0.20597,0.34491,-0.73936,-0.46712,-0.64148,0.37297,0.32430,0.92402,0.75638,0.06896,0.35642,-0.08656,-0.25975,-0.15293,-0.05844,0.02257,0.04029,-0.11177,0.19663,0.58742,0.29108,-1.04740,-0.66883,-0.78634,0.18146,0.31807,-0.79689,0.19989,0.23727,0.45850,0.12689,-0.21994,-0.08098,0.50248,-0.14122,0.74363,0.07349,-0.19443,-0.10491,-0.01526,-0.53869,-0.57451,0.01468,-1.01224,-0.75445,-0.57033,-1.96303,-0.01820,1.05981,0.05902,-0.41163,-0.10139,0.80034,0.27405,-0.43152,-0.27299,-0.63508,-0.42246,0.14730,-0.23374,-0.71811,-0.50259,-0.51522,-1.09743,-1.01197,-1.19051,-1.08591,-1.79501,0.68688,0.12025,0.07407,0.38790,0.07347,-0.07132,0.69953,0.57837,0.67229,-0.19008,0.09619,0.22860,-0.16252,0.13226,0.16420,-0.49614,-0.46656,-0.72506,-0.78527,-1.72288,0.90633,0.12123,-0.15722,0.03612,0.55923,-0.24222,0.60397,0.12229,-0.28215,-0.41702,0.44521,0.77088,-0.39982,-0.83811,-0.06228,-0.72906,-0.87852,-0.51952,-0.86585,-1.59914,1.54578,0.58140,0.64870,0.00656,-0.80267,-0.45335,0.14022,-0.66669,-0.28956,-0.31202,-0.15831,0.88404,0.12366,0.32994,-0.33233,-0.89435,-0.25937,-1.08582,-0.57391,-1.38584,1.11073,0.98326,0.21932,0.20994,0.30290,-0.03719,-0.11815,0.78092,0.19010,-0.41524,-0.22512,-0.20900,0.00678,-0.02945,-0.21056,0.71986,0.19179,0.58279,-0.13537,-0.96913,0.91735,0.47968,0.03525,-0.35739,-0.08110,0.61530,0.35598,0.44488,0.10096,-0.46686,-0.28828,0.13916,0.10527,-0.42736,1.05790,0.52911,0.13801,0.48606,0.64374,-0.33090,1.29661,0.95629,0.48110,0.68603,0.48852,-0.37906,0.59769,0.47074,0.00044,-0.03956,-0.13056,-0.89078,0.15765,-0.32793,-0.79644,-0.46722,0.13288,-0.11202,0.27881,-0.07747,0.48308,0.20909,0.09505,0.46299,0.66686,-0.15000,0.38712,-0.29339,-0.37155,-0.98621,-0.39632,-0.23546,-0.17955,-0.18524,-0.01519,-0.47247,-0.38634,-0.32737,-0.42284,-0.20546,0.59192,0.33829,0.47529,0.19521,0.50111,0.21063,0.29980,0.63874,0.33126,0.02279,-0.04120,-0.71117,-0.44794,-0.44185,0.17082,-0.43208,0.35229,-0.41443,0.04285,0.16417,0.05425,0.72165,0.33666,0.74813,0.12592,-0.50626,0.43129,-0.50976,-1.09638,-1.05746,-0.22129,-0.41539,0.17228,0.22210,-0.00251,0.07558,-0.07268,0.53017,-0.36493,0.00325,0.28619,0.31776,0.26930,0.37916,0.40282,0.25932,0.90106,-0.78251,-0.06757,-0.10251,-0.58909,-0.28446,-0.62642,-0.36978,0.90568,0.30153,-0.18514,0.30357,-0.26211,-0.12768,-0.55970,0.49269,-0.06206,0.68898,0.23299,-0.17678,0.11628,-0.49267,-0.56023,-0.73993,-0.81007,-0.11594,-0.31760,-0.44581,0.99304,-0.22047,0.01397,0.16065,-0.08796,-0.38477,0.13292,0.31611,0.34468,-0.13388,0.56853,0.38801,0.36897,0.46682,-0.18349,-0.94427,-0.14608,-0.71421,0.19607,-0.57998,0.01888,0.08593,-0.37521,-0.32648,-0.24836,0.27531,-0.49687,0.36371,-0.45324,-0.11290,0.22393,-0.29103,0.07950,0.56825,-0.62803,-0.59044,0.11268,-0.47320,-0.30863,-0.75090,0.11363,-0.28227,0.37438,-0.38546,0.27501,0.19364,0.28166,0.15080,-0.17796,-0.74509,0.44320,0.42215,-0.00749,0.60586,0.47592,-0.13559,0.00307,0.04735,-1.04851,-0.00955,0.56388,0.33190,0.17080,0.23891,0.28963,0.54219,0.52780,-0.04192,0.17143,0.20192,-0.04959,0.62708,0.08734,0.45937,0.52183,-0.84039,-0.45984,0.28963,0.07102,0.33339,0.09281,0.12312,0.88609,0.02127,0.82101,0.48172,0.79675,-0.48988,0.51962,0.07526,0.88862,0.22831,0.30804,0.23039,0.15582,-0.01728,0.03854,-0.32892,0.16137,0.49635,-0.22341,0.15463,-0.15385,-0.19449,0.69551,0.43528,0.08843,-0.07878,-0.90966,0.96891,0.50414,0.39209,0.42851,0.47443,0.19451,-0.02841,1.31609,0.53098,-0.34037,-0.38462,-0.59172,-0.00365,0.10026,0.93018,-0.17637,-0.08224,-0.34628,-0.77972,-0.09596,0.00352,-0.23906,0.07894,0.35837,0.84639,-0.12528,0.54986,0.65191,1.03004,-0.13925,0.36470,0.44291,-0.69810,0.71902,0.23908,-0.00465,-0.32964,-0.04990,-0.78138,0.53588,0.06400,0.11763,0.80601,-0.41848,-0.38723,0.13634,-0.44907,-0.11754,-0.29998,0.37108,-0.32596,-0.34296,0.44154,0.59239,0.06960,0.09085,-0.01173,-0.08210,-0.06214,0.10065,0.10971,-1.21440,0.33820,-0.20197,0.25731,-0.18481,-0.04319,0.36257,-0.27695,0.24457,0.28618,0.20118,-0.20778,0.32962,0.08147,-0.38962,0.54635,1.52043,1.77486,0.48994,1.20416,0.51581,1.32995,0.56851,0.21826,0.50266,0.69874,-0.46345,0.04919,0.22477,0.05428,0.57185,-0.03050,0.74791,0.01151,0.66612,0.14602,1.65083,0.20903,0.82772,0.53237,0.07373,0.29792,0.31380,0.02022,-0.04538,-0.03488,-0.96763,-0.14340,-0.04410,0.03209,-0.17530,0.34549,0.10219,0.30939,0.21984,-0.08777,0.60587,0.49634,1.00433,0.81958,0.57619,0.56049,0.10619,0.76940,0.90712,0.73933,0.00385,-0.20356,0.58808,-0.31045,0.29046,0.44558,0.77078,0.35731,-0.27294,0.22882,-0.13192,-0.53869,1.03749,0.11489,0.36755,0.22620,0.62066,0.90360,-0.07654,0.20675,-0.07303,-0.27315,-0.23525,-0.51437,0.36059,0.60407,-0.14377,-0.20644,0.45525,-0.38732,0.31751,0.29904,0.44541,-0.19463,0.42433,0.26897,-0.44516,0.33412,0.06027,-0.37068,-0.08134,-0.07967,-0.37333,0.25798,0.15353,-0.10861,0.27045,-0.25806,0.82956,-0.46302,0.76438,0.17667,0.21537,-0.17841,0.13584,0.52498,-0.51054,0.15239,-0.20495,0.80980,-0.01847,-0.49278,-0.23977,-0.46410,-0.35065,0.34348,-0.18211,-0.25900,0.13697,-0.89885,0.75933,0.49389,-0.13435,0.36504,-0.28642,-0.03973,-0.55297,0.15203,-0.13133,-0.29926,-0.20214,0.01159,-1.25890,0.56498,-0.55551,-0.09536,-0.23668,0.37282,-0.23116,-0.95045,0.10858,-0.46447,-0.20580,0.21791,0.67454,0.17120,0.43221,-0.45177,-0.77478,-0.04539,-0.73994,-0.13676,0.31633,-0.52326,0.73382,0.01075,-0.46371,-0.19834,-0.53384,-0.30418,0.23796,-0.10264,-0.48019,-0.20442,-0.15265,0.21117,-0.02955,0.54716,-0.36740,-0.01561,0.34238,-0.25732,-0.12047,-0.08716,-0.13714,-0.57813,-0.85780,0.51882,-0.85035,-0.43259,-0.21761,0.17446,-0.45735,-0.71490,0.19073,-0.09888,0.31363,-0.69895,0.07610,-0.75660,0.09968,-0.71547,-0.65939,-0.04750,0.05483,0.17833,0.10717,0.02079,-0.62542,-0.19525,0.09301,-0.56772,-0.47070,-0.30968,-0.07801,-0.43844,0.16887,0.05006,-0.90281,-0.47853,0.06331,-0.85814,-0.20300,0.11862,0.05373,0.15299,0.24662,0.34049,-0.38433,-0.04817,-0.18107,-0.31581,-0.24415,0.01322,0.61748,-0.93663,-0.42329,0.02215,0.13054,-0.39213,0.54154,-0.08274,-0.12181,-0.10139,0.72272,0.25223,0.61754,-0.02951,-0.40361,-0.53684,-0.41887,-0.91581,-0.44415,-0.88018,-0.10896,-0.31809,0.09852,-0.03513,-0.14700,-0.50295,-0.45861,0.28153,-0.16004,0.01419,0.43793,-0.00519,0.32928,-0.93099,-0.10972,-0.21410,-0.01887,-0.18220,-0.77641,-0.05345,-0.23905,-0.87744,-0.31524,-0.56181,-1.00696,-0.19229,-0.34044,0.89875,-0.23237,-0.06436,-0.18334,0.13898,-0.04200,-0.92013,-0.54946,-0.15361,-0.01965,-0.40096,-0.84105,-0.33117,-0.22507,-0.13672,-0.47555,-0.48461,-0.04541,-0.68998,-0.07298,-0.76667,-0.57126,-0.17319,0.16956,-0.26504,0.43005,-0.58225,-0.92742,-0.15361,-0.91965,-0.55917,-0.81042,0.02000,-0.08449,-0.12020,-0.12043,0.24987,-0.28354,0.28171,0.45278,-0.62050,0.41656,-0.22356,0.76175,0.28051,0.43546,-0.68768,-1.02742,-0.05361,-0.23467,-0.93467,-0.64971,0.19550,-0.32643,0.15931,-0.50260,0.72868,-0.48440,-0.04368,0.11410,0.45307,-0.62713,-0.10933,0.40378,-0.35313,-0.81728,-0.21944,-0.08791,-0.35361,-0.71965,-0.92833,-0.01436,-0.61472,-0.16224,-0.29933,0.06217,0.25278,0.03705,-0.15952,0.47315,0.19705,-0.68990,-0.11847,0.38900,-0.23586,-0.94081,-0.87374,-0.09724,-0.33440,-0.62899,-0.91020,-0.08562,-0.76323,0.24778,-0.62414,0.61842,1.00561,0.14932,-0.40997,0.45170,0.27149,0.24892,0.38049,0.28616,0.82675,-0.23526,-1.09295,-0.19724,-0.67566,0.21654,-0.89489,-0.25806,-0.02543,0.19769,0.23037,0.74152,0.59371,-0.64699,0.62489,0.50292,-0.28535,0.39099,0.33681,-0.11858,0.34443,-0.63526,-0.79295,-0.39724,0.12434,-0.53999,-0.81769,-1.01584,-1.09038,0.06324,0.70332,0.87813,-0.44017,0.46397,0.56676,-0.25210,-0.09055,0.26829,-0.37674,0.03026,0.05007,-0.97609,-0.59295,-0.67803,-0.52037,-0.47633,-0.98160,-0.23397,-0.89477,-0.14978,0.65260,0.48561,0.04866,0.25516,0.61326,0.54165,0.21857,-0.35170,-0.00721,-0.36493,-0.70942,-0.27609,-1.09159,-0.93528,-0.28000,-0.52748,-0.47392,-1.07275,-0.27179,1.02022,0.71490,0.52792,-0.19964,0.20580,0.03392,0.01935,-0.23473,0.50112,-0.48102,0.41313,-0.16596,-1.03572,-0.18172,-0.93528,-0.18666,-0.72784,-0.01800,-0.52839,-0.22526,0.90121,-0.74869,0.00306,-0.10669,0.28106,0.62792,0.05487,0.33207,0.66433,0.05682,-0.22301,-0.66904,-1.07888,-0.25864,-0.71128,0.34989,-0.40763,-0.24818,-0.50220,-0.41217,0.00961,-0.22566,0.26530,-0.07997,0.50600,0.09194,0.47874,0.35480,0.39417,0.13061,-0.26396,-0.88344,-1.01337,-0.83528,-0.80406,0.19700,-0.03601,-0.66203,0.03180,0.40153,-0.33925,0.10336,0.30035,-0.52124,-0.67053,-0.30596,-0.18055,0.00485,-0.40663,-0.15421,-0.74281,-0.53705,-0.45907,-1.08758,-0.47095,-0.50300,-0.02575,0.07688,-0.25080,-0.53053,0.18227,0.51922,0.51960,-0.18153,-0.23329,-0.15239,-0.37125,0.13917,-0.09928,-0.35501,-0.28654,-0.14959,-0.17044,-0.13057,-0.41754,-0.51524,-0.55296,-0.71851,-0.39592,-0.84507,0.08115,-0.88813,-0.42301,-0.54391,0.30588,-0.06391,0.20933,-0.28202,0.33588,0.01713,-0.36770,-0.84693,-1.56385,-0.74115,-0.90021,-0.45730,0.32379,-0.87093,-0.82758,0.43956,0.06503,-0.58335,-0.63489,-0.58054,-0.12513,-0.52741,-0.58111,-0.35873,-0.68214,-0.86093,-0.53426,-0.14229,-0.65601,-0.24316,-0.15360,0.24514,-0.17272,-0.19622,-0.72081,-0.60701,-0.83773,-0.89888,-0.05415,-1.12061,-0.33211,-0.14337,-0.18212,-0.23588,-0.14536,-0.31860,-0.31134,-0.91134,-0.43468,-0.84472,-0.49625,0.25297,0.35946,0.24165,-0.63812,-0.19733,-0.12737,0.94563,-0.15033,-0.46560,-0.04757,0.13751,-0.00607,-0.87889,-0.01174,-0.44483,-0.19655,-0.73252,-0.30838,-0.58822,-0.30014,-1.55762,-0.49339,-0.56942,-0.12497,-0.21156,-0.12736,0.16685,-0.07976,0.43435,0.15775,-0.63114,-0.54159,1.03472,-0.76509,-0.50659,-0.99312,-1.40100,-0.71720,0.10309,-1.39617,-0.71202,-0.37465,-0.99331,-0.08740,-0.39648,-0.21743,0.50309,0.54107,0.14945,-0.45398,0.36385,0.25300,0.24706,-0.15736,-0.59269,-0.79287,-0.39437,0.39322,0.04268,-1.57648,-0.70901,-0.68749,-0.54214,-0.92030,-1.05170,1.15689,0.15378,0.01055,-0.82913,-0.17777,0.02759,0.61954,0.29789,-0.52385,0.02208,-0.00100,-0.25354,-1.49388,0.18941,-0.83896,-0.30292,-1.12780,-1.03149,0.20970,-0.07159,1.02070,1.34633,-0.07239,0.14466,-0.16578,-0.44333,-0.28419,0.12178,-0.71939,-1.77447,-0.67417,0.06102,-0.86387,-0.15564,0.43568,-0.04593,-0.63927,-0.01282,0.58056,-0.30972,0.65936,1.38012,-1.02245,-0.47707,-0.62502,-1.27968,0.65550,-0.50804,-0.62350,-0.84147,-0.12671,-0.09145,0.16820,-0.13021,0.42910,-0.01048,-0.50411,0.17262,0.80569,-0.87130,-0.83512,-0.03793,-0.59319,-0.08688,-0.46694,-0.47111,-0.41620,-0.41674,-0.58978,-0.20681,0.21182,0.22921,0.30368,0.20138,0.52039,0.67665,0.42657,-0.26052,0.43578,0.05151,0.43712,-0.42102,-0.01166,0.74390,-0.30644,-0.53227,-0.38028,-0.27343,-0.49402,0.03009,0.19662,-0.13066,-0.72731,-0.43197,0.16406,0.98122,0.64512,-0.21478,0.61292,-0.91703,0.01125,-0.41358,-0.23602,0.81005,0.20186,-0.26849,0.57497,0.55857,-0.61633,-0.22906,0.73562,0.61998,0.05523,0.21808,0.20333,1.20760,0.61636,0.86528,1.31024,0.41888,0.18296,-0.63361,1.12028,-0.15375,-0.83778,-1.16113,1.13043,0.46112,0.38582,0.89989,0.84479,1.25243,0.46694,0.64202,0.60313,0.24751,-0.34316,0.38175,0.76569,0.79837,0.81195,0.14266,1.46787,-0.01713,0.49624,-0.41685,0.69783,-0.00843,1.00422,0.93172,0.32544,0.32195,0.98203,1.02610,0.43961,-0.96716,-0.15337,0.53703,0.23752,0.31961,1.54409,-0.44194,0.64587,0.24521,0.59971,0.23554,0.70896,0.89131,-0.62800,0.30671,0.61542,0.15365,-0.81345,-0.23849,-1.11344,-1.05530,-1.25055,-0.80232,1.09346,0.47884,0.37080,0.93169,1.27620,1.05448,0.60688,0.61339,0.53327,-0.31492,-0.01627,-0.19806,0.28682,-0.09126,-0.12249,-0.44310,-0.91472,-0.71626,-1.97564,-0.50329,-2.15046,0.02145,-1.04239,0.24321,0.08955,1.00958,0.52526,-0.81577,0.51677,0.14594,-1.33485,-0.41672,0.63724,-0.38812,0.36327,-0.45371,-1.32960,-1.80870,-1.50875,-1.03697,-1.45116,-0.73288,-0.46676,-0.46210,0.15343,-0.05597,0.02259,0.08380,-0.04635,-0.30260,0.75538,0.09616,-1.00376,-0.71636,0.04433,-0.92957,-0.93064,-1.49478,-1.03907,-1.18890,0.69453,-0.18493,-0.08468,0.46338,1.14380,1.07033,0.34148,0.72485,-0.56359,1.70646,-0.16472,-0.08513,0.22975,-0.30302,-0.66407,0.10312,-0.11780,-1.34637,-1.37950,-0.23261,-0.18503,0.36965,0.90590,1.89255,0.68949,1.36329,1.07059,-0.25867,-0.78516,-0.36697,0.53208,0.17039,-0.17544,-0.76906,0.26570,0.27637,-0.49774,-0.91781,-0.02451,1.69588,-0.26554,0.40288,0.35287,1.02415,1.17464,0.07498,-0.00661,-0.51489,-0.75886,0.06560,-0.32550,0.58433,-0.18006,-0.90524,-0.70676,-0.63341,-0.76711,0.76055,1.75194,0.79217,-0.42938,-0.10868,0.62033,0.32018,0.89696,-0.76114,0.25948,0.33173,0.22209,0.54369,0.13137,0.12385,-0.02823,-0.95161,-0.70186,-1.14453,-0.27073,-0.01709,1.61598,-0.20395,0.29700,0.74514,-0.39006,-0.08550,-0.42824,-0.39944,-0.31061,0.01471,-0.05905,0.14004,-0.49417,-0.86765,-0.85229,-1.21377,0.68659,-0.25642,-0.45626,-0.05114,0.85637,0.04853,0.32175,0.11443,0.23489,-0.35274,0.19230,-0.81515,0.30811,-0.07604,0.43121,0.50604,0.50913,-0.10616,-0.92757,-0.26477,0.20363,-0.07083,-0.33643,-0.25983,1.20794,0.34766,0.53142,0.77260,-0.23338,-0.15183,0.11649,-0.42997,0.18732,-1.63952,-1.41960,-0.33677,-0.41465,-0.76464,0.02219,0.53803,0.12054,-0.34817,-1.15575,-0.71114,1.64810,-1.01836,0.34565,0.87547,-0.80477,-0.31264,0.65104,-0.38631,-1.38518,-1.30446,-1.78797,-0.04225,0.08624,0.43482,0.15142,-0.64498,-0.20237,0.49820,-0.36567,0.18208,1.07659,-0.71604,0.79410,0.52500,-0.78593,-0.40512,0.85291,0.70322,-0.33270,-1.20837,-0.33611,-0.77825,0.19023,0.46867,0.23293,0.32174,1.09585,0.06382,-0.15825,0.57980,0.10669,0.97114,-0.26325,0.48502,-0.80408,-0.15816,0.33740,0.39536,-0.14038,-1.17492,-0.28744,-1.09828,-0.44376,0.42700,0.03330,-0.00703,0.14247,-0.05797,-0.15597,-0.05719,0.18531,0.62493,0.21707,0.00728,-0.02829,-1.24558,-0.23267,0.79750,0.01078,-0.33976,0.47783,-0.43681,-0.16466,-0.76508,-0.50078,-0.17321,-0.43520,-0.43188,0.82582,0.90035,0.36382,-0.31260,-0.01217,-0.87955,-0.24591,-0.49820,-0.01939,0.57486,0.50591,-0.44224,-0.13821,0.07697,-0.17774,-0.20085,-0.12293,-0.62069,0.08455,0.39983,0.82841,-0.01958,-0.14979,0.66544,-0.51397,-1.05483,-0.34261,-0.43813,0.21324,0.04519,0.51608,0.74208,-0.25556,-0.27412,-0.61545,-0.22678,-0.90079,-0.79897,-0.79846,-0.80133,0.28823,0.16698,-0.82968,-0.44778,-0.61292,-0.65288,0.75173,0.28051,0.60269,0.04832,0.33630,-0.28399,0.04427,0.28071,0.44537,-1.02848,-0.29590,-0.15016,0.25664,-0.02255,0.16077,-0.13472,-0.84014,-2.33362,-0.15697,-0.31940,-0.38242,-0.15024,-0.01109,0.31857,0.11345,0.88112,-0.96620,0.20919,-0.23793,-0.57659,-0.68180,-0.25457,0.10977,-0.12501,-1.38275,-0.54457,0.10765,-0.37033,0.19033,0.37599,-0.09124,0.55905,0.79767,0.81769,-0.36318,-0.31412,-0.43796,-0.45857,-0.66899,-0.23661,0.44104,-0.50033,-0.49984,-0.05488,-0.80673,-0.78122,0.17820,0.29078,-0.44877,-0.65758,-0.55601,0.46774,-0.06117,-0.37391,0.60937,-0.44569,0.43121,-0.10518,-0.52439,0.05252,0.03429,-0.59338,0.35063,-0.39279,-0.96965,-0.92008,-0.06561,-0.19206,0.14709,0.41212,-0.02440,-0.22081,-0.18285,0.15221,-0.45254,-0.37453,-0.02345,0.61916,0.05645,0.07897,-0.62842,0.76770,-0.83735,-0.22926,-0.88106,-0.20425,-0.11896,0.72908,0.23662,-0.47736,-0.63896,-0.99751,0.11586,-0.24790,0.20967,-0.09299,0.99191,0.58759,-0.76565,-0.54268,-0.74165,0.05984,0.09909,-0.97352,0.08895,-0.78770,0.43854,0.07530,0.01126,-0.05779,-0.30362,-0.36424,-0.10467,-0.72970,-0.24623,-0.71678,-0.25566,-0.31809,-0.13202,-0.30572,-0.28682,-0.36460,-0.43377,0.43817,-0.82253,0.15938,0.12868,0.25087,0.41122,0.20722,0.39652,0.53131,-0.22700,-0.05401,-0.11557,-0.07325,-0.22816,0.47237,0.74415,-0.14142,-0.33492,-0.42382,-0.33437,0.12155,-0.09201,0.27947,0.89996,0.64500,0.41150,0.15081,0.15937,-0.33867,-0.36419,0.02914,-0.33108,-0.68500,-1.09995,0.33803,-0.16402,-0.46888,0.31312,-0.70388,0.25390,0.23834,0.88421,0.68223,1.15866,0.01889,-0.17388,-0.21920,0.35482,0.07912,-0.29656,-0.00843,0.33388,-0.19059,0.17372,1.08351,0.44297,0.49567,0.35990,0.42657,0.09179,0.29350,0.28228,0.09242,0.69681,-0.24735,0.38328,-0.08162,-0.04017,0.61800,0.05570,0.17661,-0.27421,-0.63006,-0.80990,-0.02677,-0.15193,0.45571,-0.59085,-0.73329,0.61113,0.71128,0.57977,0.51278,0.97331,-0.14171,-0.07074,0.46267,0.17788,0.31611,-0.01309,0.11053,0.24502,-0.79795,-0.61227,-0.40422,-0.26192,0.24511,-0.18984,0.20126,0.16613,-0.03828,0.81318,1.16534,1.23895,-0.22054,0.02577,0.42927,0.03407,-0.01068,0.04967,-0.09892,0.35565,-0.22140,0.17693,0.12401,0.03085,-0.33155,0.08825,-0.79129,-0.87318,0.21172,0.70573,0.72421,0.26726,0.56400,0.78362,-0.02817,0.29700,-0.26576,0.42365,-0.00369,0.24263,-0.30235,-0.09638,0.76923,0.05936,-0.33440,-0.28967,0.02323,0.26900,1.04086,-0.10307,0.95663,0.70965,1.11930,0.46216,0.68008,-0.33785,-0.22215,0.33276,-0.14924,0.36652,0.00813,0.00648,0.59199,-0.31487,-0.36242,0.35186,-0.27415,0.80991,0.70643,0.24201,0.45615,1.13686,0.92301,-0.22850,-0.28077,0.18342,0.20579,-0.04239,1.11122,-0.44181,-0.19822,-0.65322,-0.22487,-0.19954,-0.45929,-0.69387,-0.34482,0.31731,-0.24855,0.35164,0.89531,-0.26527,2.13144,-0.27015,-0.31369,0.68666,-0.08182,-0.05165,0.85904,0.41788,0.07191,-0.46567,0.26461,-0.14146,-0.85889,-0.54434,-0.63147,0.04870,-0.53980,0.17028,0.57629,-1.11723,-0.39582,0.16746,0.14977,0.12270,0.99598,0.17425,0.54402,0.75324,0.29789,-0.24675,-0.68201,-0.46441,0.13681,0.13633,-0.24945,-0.42627,-0.33446,0.01142,0.93340,-1.96495,-0.70675,0.33782,-0.48736,0.37481,0.23386,0.77381,1.18307,1.10532,0.32376,-0.58373,0.48397,0.58893,0.27809,0.30743,-0.07931,0.06250,0.47344,0.85728,-0.09834,-1.66630,-1.95359,-0.77439,-0.91075,-0.69595,-0.92589,-0.56874,0.32445,0.21721,0.23483,-0.51733,-0.13471,-1.01873,-0.06295,0.60777,-0.78657,-0.21070,0.53902,0.46846,0.36863,-0.70262,-1.39838,-1.00829,-0.53796,0.66753,0.61678,0.12712,-0.07654,0.40203,0.45432,-0.08944,0.13864,0.29543,-0.10068,0.62460,0.30860,-0.57468,0.10923,0.01820,0.68487,-1.09716,-1.10171,-0.49379,0.09268,0.31397,-0.05021,0.08018,-0.38798,0.73300,0.03087,-0.10340,-0.06424,-0.06061,0.26125,0.25609,1.09306,0.24563,0.35710,-0.00401,0.43241,-0.23604,-1.47906,-0.49313,-0.27224,-0.20467,0.36912,0.53973,0.01051,-0.32914,0.37537,-0.59426,0.77256,-0.01599,0.78600,0.28759,0.59899,-0.12167,-0.21717,0.63417,0.35881,-0.37683,-0.93216,-0.85102,-2.26184,-0.24030,0.07020,-0.57622,0.34925,-0.86308,-0.46521,-0.16119,-0.39890,-0.30182,0.04500,0.20621,0.25538,-0.34993,0.40986,0.49807,-0.71261,-0.19836,-1.08456,-0.20806,-0.33858,0.01442,0.06929,-0.41280,0.06665,-0.15494,0.68552,0.28233,0.01084,-0.08718,-0.33632,-0.25874,-0.65738,0.21345,-0.13634,0.17270,-0.30213,0.52913,0.54041,0.26408,0.30342,-0.40615,-0.18332,0.01113,0.27961,0.35704,0.15403,0.22168,0.10453,-0.11495,0.29244,-0.42616,0.52848,0.18619,-0.18831,-0.21972,0.05392,0.99627,0.91055,0.08317,-0.66463,-0.30992,-0.92315,-0.53641,0.55032,0.90727,0.32982,-0.84351,-0.42683,0.14745,-0.43237,-0.01629,0.17514,-0.50277,0.29351,-0.58254,-0.24587,0.92583,-0.61742,-0.02327,0.23839,-0.07313,-0.89864,0.52846,0.76374,0.76857,-0.46958,-0.72416,0.07223,-0.62872,-0.22923,-0.54872,0.36963,-0.67569,-1.16504,0.02340,-0.12289,-1.10942,0.12382,0.47021,-0.01534,-0.03626,-0.73354,0.28154,-0.23730,-0.32950,-0.05629,0.43499,-1.04837,-0.35332,-0.06628,0.01359,-0.98765,-1.28601,-0.20493,0.45200,0.03503,0.86828,-0.22741,-0.24348,0.50910,0.01144,0.25741,-0.83996,0.24158,-0.66243,0.19426,-0.63122,-0.45635,-0.79920,-0.35668,-0.28773,-0.62012,-0.57860,-0.11533,0.20379,-0.22691,-0.12634,-0.41779,-0.36185,-0.48867,1.05885,0.04601,-0.19233,-0.15096,0.33143,-0.12086,-0.39819,-0.25492,0.04733,-0.75828,-0.28573,-0.20340,0.07399,-0.51548,0.43981,-0.18050,0.26138,-0.70657,0.06591,-0.06477,-0.77760,-1.00345,0.15143,-0.43360,-0.21024,-0.36490,-0.11206,-0.39450,-1.22921,-0.04521,0.31056,-1.32768,-0.83868,-0.58710,-1.55997,-0.22074};


/**
*      
*/
class Digit
{
public:
	double S;
	int Xl,Xr,Yl,Yh;
	int * digit;
	int label;
	Digit(int l)
	{
		label = l;
		Xr = Yl = 0;
		Xl = Yh = 32000;
		S = 0;
		digit = new int[600];
	}

	~Digit()
	{
		delete[] digit;
	}
};

class DisjointSets
{
public:

	// Create an empty DisjointSets data structure
	DisjointSets()
	{
		m_numElements = 0;
		m_numSets = 0;
	};
	// Create a DisjointSets data structure with a specified number of elements (with element id's from 0 to count-1)
	DisjointSets(int count)
	{
		m_numElements = 0;
		m_numSets = 0;
		AddElements(count);
	};
	// Copy constructor
	DisjointSets(const DisjointSets & s)
	{
		this->m_numElements = s.m_numElements;
		this->m_numSets = s.m_numSets;

		// Copy nodes
		m_nodes.resize(m_numElements);
		for(int i = 0; i < m_numElements; ++i)
			m_nodes[i] = new Node(*s.m_nodes[i]);

		// Update parent pointers to point to newly created nodes rather than the old ones
		for(int i = 0; i < m_numElements; ++i)
			if(m_nodes[i]->parent != NULL)
				m_nodes[i]->parent = m_nodes[s.m_nodes[i]->parent->index];
	};
	// Destructor
	~DisjointSets()
	{
		for(int i = 0; i < m_numElements; ++i)
			delete m_nodes[i];
		m_nodes.clear();
		m_numElements = 0;
		m_numSets = 0;
	};

	// Find the set identifier that an element currently belongs to.
	// Note: some internal data is modified for optimization even though this method is consant.
	int FindSet(int elementId) const
	{
		--elementId;
		assert(elementId < m_numElements);

		Node* curNode;

		// Find the root element that represents the set which `elementId` belongs to
		curNode = m_nodes[elementId];
		while(curNode->parent != NULL)
			curNode = curNode->parent;
		Node* root = curNode;

		// Walk to the root, updating the parents of `elementId`. Make those elements the direct
		// children of `root`. This optimizes the tree for future FindSet invokations.
		curNode = m_nodes[elementId];
		while(curNode != root)
		{
			Node* next = curNode->parent;
			curNode->parent = root;
			curNode = next;
		}

		return root->index;
	}
	// Combine two sets into one. All elements in those two sets will share the same set id that can be gotten using FindSet.
	void Union(int setId1, int setId2)
	{
		assert(setId1 < m_numElements);
		assert(setId2 < m_numElements);

		if(setId1 == setId2)
			return; // already unioned

		Node* set1 = m_nodes[setId1];
		Node* set2 = m_nodes[setId2];

		// Determine which node representing a set has a higher rank. The node with the higher rank is
		// likely to have a bigger subtree so in order to better balance the tree representing the
		// union, the node with the higher rank is made the parent of the one with the lower rank and
		// not the other way around.
		if(set1->rank > set2->rank)
			set2->parent = set1;
		else if(set1->rank < set2->rank)
			set1->parent = set2;
		else // set1->rank == set2->rank
		{
			set2->parent = set1;
			++set1->rank; // update rank
		}

		// Since two sets have fused into one, there is now one less set so update the set count.
		--m_numSets;
	}
	
	// Add a specified number of elements to the DisjointSets data structure. The element id's of the new elements are numbered
	// consequitively starting with the first never-before-used elementId.
	void AddElements(int numToAdd)
	{
		assert(numToAdd >= 0);

		// insert and initialize the specified number of element nodes to the end of the `m_nodes` array
		m_nodes.insert(m_nodes.end(), numToAdd, (Node*)NULL);
		for(int i = m_numElements; i < m_numElements + numToAdd; ++i)
		{
			m_nodes[i] = new Node();
			m_nodes[i]->parent = NULL;
			m_nodes[i]->index = i;
			m_nodes[i]->rank = 0;
		}

		// update element and set counts
		m_numElements += numToAdd;
		m_numSets += numToAdd;
	}
	// Returns the number of elements currently in the DisjointSets data structure.
	int NumElements() const
	{
		return m_numElements;
	}
	// Returns the number of sets currently in the DisjointSets data structure.
	int NumSets() const
	{
		return m_numSets;
	}

private:

	// Internal Node data structure used for representing an element
	struct Node
	{
		int rank; // This roughly represent the max height of the node in its subtree
		int index; // The index of the element the node represents
		Node* parent; // The parent node of the node
	};

	int m_numElements; // the number of elements currently in the DisjointSets data structure.
	int m_numSets; // the number of sets currently in the DisjointSets data structure.
	std::vector<Node*> m_nodes; // the list of nodes representing the elements
};


/**
  *    
 */
class Neuron
{
public:
	/**
	  * 
	  * @param c -  
	 */
	Neuron(int c)
	{
		count = c;
		w = new double[count];
	}

	~Neuron()
	{
		delete[] w;
	}

	/**
	  *  
	  * @param x -  
	  * @return -   
	 */
	double tranfer(int *x)
	{
		return activator(sum(x));
	}

	/**
	  *     
	 */
	void getWeights(double *weight)
	{

		for (int i = 0; i < count; i++)
		{
			w[i] = weight[i];
		}
	}

	double * getW()
	{
		return w;
	}

private:
	double* w; //  
	int count; //  

	/**
	  * 
	 */
	double sum(int *x)
	{
		double nec = 0;
		for(int i = 0; i < count; i++)
		{
			nec += x[i]*w[i];
		}
		return nec;
	}

	 /**
	   *     ,
	   *    -   ,
	   *    {0;1}
	  */
	double activator(double nec)
	{
		return 1/(1 + exp(-nec));
	}
};

 /**
   *  n- 
 */
class Perceptron
{
public:
	 /**
	   * 
	   * @param n -  
	   * @param m -      
	  */
	Perceptron(int n, int m)
	{
		this->n = n;
		this->m = m;
		neurons.insert(neurons.end(), n, (Neuron*)NULL);
		for (int j = 0; j <n; j++)
		{
			neurons[j] = new Neuron(m);
		}
	}

	 /**
	   * 
	  */
	~Perceptron()
	{
		for(int i = 0; i < n; ++i)
			delete neurons[i];
		neurons.clear();
	}


	 /**
	   *  
	   * @param x -  
	   * @param y -  
	  */
	void recognize(int *x, double *y)
	{
		for( int j = 0; j < n; j++)
		{
			y[j] = neurons[j]->tranfer(x);
		}
	}

	  /**
	*    
	   */
	void getWeights(double *weight)
	{
		for(int j = 0; j < n; j++)
		{
			neurons[j]->getWeights(&weight[j*m]);
		}
	}

	int getN()
	{
		return n;
	}

	int getM()
	{
		return m;
	}

private:
	std::vector<Neuron*> neurons;
	int n,m;
};

/**
 *	     
 *	   
 */
class SeqScan
{
public:
	/**
	*	 
	*/
	SeqScan(int row, int column)
	{
		row_count = row;
		column_count = column;
		labeledMap = new int[row_count*column_count];
		memset(labeledMap, 0, 4*(row_count*column_count));
		label = 0;
	}

	/**
	  *  
	*/
	~SeqScan()
	{
		delete[] labeledMap;
	}

	/**
	  *    
	*/
	void PostProcessing()
	{
		for (int i = 1; i < row_count; i++)
		{
			for (int j = 1; j < column_count; j++)
			{
				if (labeledMap[i*column_count + j] != 0)
					labeledMap[i*column_count + j] = conflict.FindSet(labeledMap[i*column_count + j]) + 1;
			}
		}
	}
	
	/**
	  *   
	*/
	void getDigits()
	{
		map<int, Digit*> reg;
		vector<int> toDelete;
		int count = 0;
		for (int j = 1; j < column_count; j++)
		{
			for (int i = 1; i < row_count; i++)
			{
				if (labeledMap[i*column_count + j] != 0)
				{
					if (reg.find(labeledMap[i*column_count + j]) == reg.end())
					{
						reg[labeledMap[i*column_count + j]] = new Digit(labeledMap[i*column_count + j]);
						Lcount.push_back(reg[labeledMap[i*column_count + j]]);
						count++;
					}
					if (reg[labeledMap[i*column_count + j]]->Xr < j)
						reg[labeledMap[i*column_count + j]]->Xr = j;
					if (reg[labeledMap[i*column_count + j]]->Xl > j)
						reg[labeledMap[i*column_count + j]]->Xl = j;
					if (reg[labeledMap[i*column_count + j]]->Yl < i)
						reg[labeledMap[i*column_count + j]]->Yl = i;
					if (reg[labeledMap[i*column_count + j]]->Yh > i)
						reg[labeledMap[i*column_count + j]]->Yh = i;
					reg[labeledMap[i*column_count + j]]->S++;
				}
			}
		} 
		for (int i = 0; i < count; i++)
		{
			//       10 
			if (Lcount[i]->S < 20)
				toDelete.push_back(i);
			else
			{
				int c = 0;
				double height = (Lcount[i]->Yl - Lcount[i]->Yh) / 29.0;
				double width = (Lcount[i]->Xr  - Lcount[i]->Xl) / 19.0;

				for(int k = 0; k < 30; k++)
				{
					for(int j = 0; j < 20; j++)
					{
						if (labeledMap[(int)floor(k*height + 0.5)* column_count  + (int)floor(j*width + 0.5) +
								Lcount[i]->Yh*column_count + Lcount[i]->Xl] == Lcount[i]->label)
						{
							Lcount[i]->digit[k*20 + j] = 1;
							c++;
						}
						else
							Lcount[i]->digit[k*20 + j] = 0;
					}
				}
				if (c < 100)
					toDelete.push_back(i);
			}
		}
		for (int i = toDelete.size() - 1; i >= 0; i--)
		{
			Lcount.erase(Lcount.begin() + toDelete[i]);
		}
	}

	/**
	  *   
	*/
	void Run(char *data)
	{
		for (int i = 1; i < row_count; i++)
		{
			for (int j = 1; j < column_count; j++)
			{
				if (data[i*column_count + j] == '@' || data[i*column_count + j] == '#' || 
					(data[i*column_count + j] == '%' && 
					(labeledMap[i*column_count + j - 1] == 0 && data[i*column_count + j + 1] == '.')))
				{	
					if (labeledMap[(i - 1)*column_count + j-1] != 0)
					{
						labeledMap[i*column_count + j] = labeledMap[(i - 1)*column_count + j - 1];
					}
					else
					{
						if ((labeledMap[(i - 1)*column_count + j] == 0) && (labeledMap[i*column_count + j - 1] == 0))
						{
							label++;
							labeledMap[i*column_count + j] = label;
							conflict.AddElements(1);
						}
						else
						{
							if ((labeledMap[(i - 1)*column_count + j] != 0) ^ (labeledMap[i*column_count + j - 1] != 0))
							{
								if (labeledMap[(i - 1)*column_count + j] != 0)
									labeledMap[i*column_count + j] = labeledMap[(i - 1)*column_count + j];
								else
									labeledMap[i*column_count + j] = labeledMap[i*column_count + j - 1];
							}
							else
							{
								if ((labeledMap[(i - 1)*column_count + j] != 0) && (labeledMap[i*column_count + j - 1] != 0))
								{
									labeledMap[i*column_count + j] = labeledMap[(i - 1)*column_count + j];
									if (labeledMap[(i - 1)*column_count + j] != labeledMap[i*column_count + j - 1])
									{
										conflict.Union(conflict.FindSet(labeledMap[i*column_count + j - 1]), conflict.FindSet(labeledMap[(i - 1)*column_count + j]));								
									}
								}
							}
						}
					}
					if ((labeledMap[(i - 1)*column_count + j+1] != 0) && 
						(labeledMap[(i - 1)*column_count + j+1] != labeledMap[i*column_count + j]) )
					{
						conflict.Union(conflict.FindSet(labeledMap[i*column_count + j]), conflict.FindSet(labeledMap[(i - 1)*column_count + j + 1 ]));								
					}
				}
			}
		}
		PostProcessing();
		getDigits();	
	}
	/**
	 *    .
	*/
	int * getLabeledMap()
	{
		return labeledMap;
	}
	///   
	vector<Digit*> Lcount;
private:
	///     
	int column_count;
	///     
	int	row_count;
	///    
	int* labeledMap;
	///   
	int label;
	///       
	DisjointSets conflict;
};

/**
 *    
 */
class Scanner
{
public:
	/**
	*	 ,
	*	    .
	*/
	Scanner(int ac, char* av[])
	{
		int tmp[100000];
		int i = 0;
		string str;

		getline(cin,str);
		column_count = str.length();

		do
		{
			for (int j = 0; j < column_count; j++)
			{
				tmp[i*column_count + j] = str[j];
			}
			i++;
		}
		while (getline(cin,str) && !str.empty());

		row_count = i;
		data = new char[row_count*column_count];

		for(int i = 0; i < row_count; i++)
		{
			for(int j = 0; j < column_count; j++)
			{
				data[i*column_count + j] = tmp[i*column_count + j];
			}
		}
	}

	/**
	  *  
	*/
	~Scanner()
	{
		delete[] data;
	}

	/**
	  *     .
	*/
	void Run()
	{
		SeqScan labelScan(row_count, column_count);
		labelScan.Run(data);
		int size = 600;
		int n = 10;
		double *z = new double[10];
		Perceptron perceptron(n, size);

		perceptron.getWeights(weights);
		for (vector<Digit*>::const_iterator it = labelScan.Lcount.begin(); it != labelScan.Lcount.end(); it++)
		{
			int number = 0;
			double prec = 0;
			perceptron.recognize((*it)->digit, z);
			for (int k = 0; k < n ; k++)
			{
				if (z[k] > prec)
				{
					prec = z[k];
					number = k;
				}
				//cout << "Number is: " << k << "  " << z[k] << endl;
			}
			cout << number;
		}
		delete[] z;
	}

private:
	///    
	int column_count;
	///    
	int	row_count;
	///    
	char* data;

};


int main(int argc, char* argv[])
{
	try
	{
		Scanner scanner(argc,argv);
		scanner.Run();
	}
	catch(exception& e)
	{
	cerr << "Error: " << e.what() << "\n";
	return 1;
	}
	catch(...)
	{
	cerr << "Exception of unknown type!\n";
	return 2;
	}
	return 0;
}